<?xml version="1.0"?>
<opencv_storage>
<myhaar type_id="opencv-haar-classifier">
  <size>
    24 24</size>
  <stages>
    <_>
      <trees>
        <_>
          <_>
            <feature>
              <rects>
                <_>
                  0 2 24 17 -1.</_>
                <_>
                  6 2 12 17 2.</_></rects>
              <tilted>0</tilted></feature>
            <threshold>-0.4008507132530212</threshold>
            <left_val>0.9900497794151306</left_val>
            <right_val>-0.9999977946281433</right_val></_></_></trees>
      <stage_threshold>0.9900497794151306</stage_threshold>
      <parent>-1</parent>
      <next>-1</next></_>
    <_>
      <trees>
        <_>
          <_>
            <feature>
              <rects>
                <_>
                  0 0 24 24 -1.</_>
                <_>
                  0 6 24 12 2.</_></rects>
              <tilted>0</tilted></feature>
            <threshold>-0.2855465114116669</threshold>
            <left_val>0.9900497794151306</left_val>
            <right_val>-0.9999977946281433</right_val></_></_></trees>
      <stage_threshold>0.9900497794151306</stage_threshold>
      <parent>0</parent>
      <next>-1</next></_>
    <_>
      <trees>
        <_>
          <_>
            <feature>
              <rects>
                <_>
                  1 0 22 24 -1.</_>
                <_>
                  1 8 22 8 3.</_></rects>
              <tilted>0</tilted></feature>
            <threshold>-0.5907781720161438</threshold>
            <left_val>0.8393152952194214</left_val>
            <right_val>-0.9426174759864807</right_val></_></_>
        <_>
          <_>
            <feature>
              <rects>
                <_>
                  20 6 2 12 -1.</_>
                <_>
                  20 6 1 12 2.</_></rects>
              <tilted>0</tilted></feature>
            <threshold>-5.6086909025907516e-003</threshold>
            <left_val>0.4160707890987396</left_val>
            <right_val>-0.4763658940792084</right_val></_></_></trees>
      <stage_threshold>-0.5265465974807739</stage_threshold>
      <parent>1</parent>
      <next>-1</next></_>
    <_>
      <trees>
        <_>
          <_>
            <feature>
              <rects>
                <_>
                  1 6 4 8 -1.</_>
                <_>
                  3 6 2 8 2.</_></rects>
              <tilted>0</tilted></feature>
            <threshold>-0.0204531904309988</threshold>
            <left_val>0.6770040988922119</left_val>
            <right_val>-0.9671788811683655</right_val></_></_>
        <_>
          <_>
            <feature>
              <rects>
                <_>
                  1 0 22 24 -1.</_>
                <_>
                  1 6 22 12 2.</_></rects>
              <tilted>0</tilted></feature>
            <threshold>-0.4831596910953522</threshold>
            <left_val>0.7059019804000855</left_val>
            <right_val>-0.8319240808486939</right_val></_></_></trees>
      <stage_threshold>-0.2612768113613129</stage_threshold>
      <parent>2</parent>
      <next>-1</next></_>
    <_>
      <trees>
        <_>
          <_>
            <feature>
              <rects>
                <_>
                  2 15 10 4 -1.</_>
                <_>
                  2 15 5 2 2.</_>
                <_>
                  7 17 5 2 2.</_></rects>
              <tilted>0</tilted></feature>
            <threshold>-5.3802412003278732e-003</threshold>
            <left_val>0.7743278145790100</left_val>
            <right_val>-0.7363548278808594</right_val></_></_>
        <_>
          <_>
            <feature>
              <rects>
                <_>
                  20 3 4 8 -1.</_>
                <_>
                  22 3 2 4 2.</_>
                <_>
                  20 7 2 4 2.</_></rects>
              <tilted>0</tilted></feature>
            <threshold>-0.0151325799524784</threshold>
            <left_val>-1.</left_val>
            <right_val>0.0763104334473610</right_val></_></_>
        <_>
          <_>
            <feature>
              <rects>
                <_>
                  0 3 4 8 -1.</_>
                <_>
                  0 3 2 4 2.</_>
                <_>
                  2 7 2 4 2.</_></rects>
              <tilted>0</tilted></feature>
            <threshold>-3.8006589747965336e-003</threshold>
            <left_val>0.5295529961585999</left_val>
            <right_val>-0.8380153179168701</right_val></_></_></trees>
      <stage_threshold>-0.1304913014173508</stage_threshold>
      <parent>3</parent>
      <next>-1</next></_>
    <_>
      <trees>
        <_>
          <_>
            <feature>
              <rects>
                <_>
                  2 6 20 12 -1.</_>
                <_>
                  2 10 20 4 3.</_></rects>
              <tilted>0</tilted></feature>
            <threshold>-0.0872109532356262</threshold>
            <left_val>0.5307238101959229</left_val>
            <right_val>-0.8585054874420166</right_val></_></_>
        <_>
          <_>
            <feature>
              <rects>
                <_>
                  2 20 20 1 -1.</_>
                <_>
                  7 20 10 1 2.</_></rects>
              <tilted>0</tilted></feature>
            <threshold>-0.0153523199260235</threshold>
            <left_val>0.6118420958518982</left_val>
            <right_val>-0.7097573280334473</right_val></_></_>
        <_>
          <_>
            <feature>
              <rects>
                <_>
                  2 19 4 1 -1.</_>
                <_>
                  3 20 2 1 2.</_></rects>
              <tilted>1</tilted></feature>
            <threshold>-1.7786219541449100e-004</threshold>
            <left_val>-1.</left_val>
            <right_val>0.3767245113849640</right_val></_></_>
        <_>
          <_>
            <feature>
              <rects>
                <_>
                  12 0 12 1 -1.</_>
                <_>
                  16 0 4 1 3.</_></rects>
              <tilted>0</tilted></feature>
            <threshold>-0.0119167203083634</threshold>
            <left_val>-1.</left_val>
            <right_val>-0.0376786701381207</right_val></_></_>
        <_>
          <_>
            <feature>
              <rects>
                <_>
                  0 0 12 1 -1.</_>
                <_>
                  4 0 4 1 3.</_></rects>
              <tilted>0</tilted></feature>
            <threshold>-4.7433891450054944e-004</threshold>
            <left_val>-0.9489297866821289</left_val>
            <right_val>0.3901968002319336</right_val></_></_></trees>
      <stage_threshold>-0.8390203118324280</stage_threshold>
      <parent>4</parent>
      <next>-1</next></_></stages></myhaar>
</opencv_storage>
