<?xml version="1.0"?>
<opencv_storage>
<stage2>
  <maxWeakCount>5</maxWeakCount>
  <stageThreshold>-8.9251565933227539e-01</stageThreshold>
  <weakClassifiers>
    <_>
      <internalNodes>
        0 -1 8445 -2.7618747204542160e-02</internalNodes>
      <leafValues>
        6.3636362552642822e-01 -6.2745100259780884e-01</leafValues></_>
    <_>
      <internalNodes>
        0 -1 118974 -3.2820855267345905e-05</internalNodes>
      <leafValues>
        5.2812814712524414e-01 -4.8788419365882874e-01</leafValues></_>
    <_>
      <internalNodes>
        0 -1 11189 -2.6407625526189804e-02</internalNodes>
      <leafValues>
        6.8192809820175171e-01 -4.2138361930847168e-01</leafValues></_>
    <_>
      <internalNodes>
        0 -1 493 1.6990471631288528e-03</internalNodes>
      <leafValues>
        2.9947119951248169e-01 -8.4527438879013062e-01</leafValues></_>
    <_>
      <internalNodes>
        0 -1 20886 2.6647645980119705e-02</internalNodes>
      <leafValues>
        3.4473192691802979e-01 -9.2378193140029907e-01</leafValues></_></weakClassifiers></stage2>
</opencv_storage>
