<?xml version="1.0"?>
<opencv_storage>
<stage14>
  <maxWeakCount>7</maxWeakCount>
  <stageThreshold>-5.8099353313446045e-01</stageThreshold>
  <weakClassifiers>
    <_>
      <internalNodes>
        0 -1 149402 6.4856912940740585e-03</internalNodes>
      <leafValues>
        -1.9277107715606689e-01 1.</leafValues></_>
    <_>
      <internalNodes>
        0 -1 2254 2.2542337319464423e-05</internalNodes>
      <leafValues>
        1.8316166102886200e-01 -9.1213667392730713e-01</leafValues></_>
    <_>
      <internalNodes>
        0 -1 71201 -1.4396654441952705e-02</internalNodes>
      <leafValues>
        8.0317157506942749e-01 -2.5162103772163391e-01</leafValues></_>
    <_>
      <internalNodes>
        0 -1 2913 -1.1558462679386139e-01</internalNodes>
      <leafValues>
        -7.5485455989837646e-01 3.0533808469772339e-01</leafValues></_>
    <_>
      <internalNodes>
        0 -1 13442 1.1870851449202746e-04</internalNodes>
      <leafValues>
        2.7592819929122925e-01 -6.0329335927963257e-01</leafValues></_>
    <_>
      <internalNodes>
        0 -1 124694 -3.3823284320533276e-04</internalNodes>
      <leafValues>
        5.2570754289627075e-01 -3.5200744867324829e-01</leafValues></_>
    <_>
      <internalNodes>
        0 -1 79176 1.2387949973344803e-03</internalNodes>
      <leafValues>
        3.3876219391822815e-01 -5.4751527309417725e-01</leafValues></_></weakClassifiers></stage14>
</opencv_storage>
